digraph Tree {
node [shape=box, style="filled, rounded", color="black", fontname=helvetica] ;
edge [fontname=helvetica] ;
0 [label=<score &le; 0.022<br/>gini = 0.5<br/>samples = 1668<br/>value = [837, 831]<br/>class = loss>, fillcolor="#e5813902"] ;
1 [label=<kills &le; 0.544<br/>gini = 0.073<br/>samples = 447<br/>value = [430, 17]<br/>class = loss>, fillcolor="#e58139f5"] ;
0 -> 1 [labeldistance=2.5, labelangle=45, headlabel="True"] ;
2 [label=<assists &le; 0.342<br/>gini = 0.021<br/>samples = 383<br/>value = [379, 4]<br/>class = loss>, fillcolor="#e58139fc"] ;
1 -> 2 ;
3 [label=<gini = 0.0<br/>samples = 300<br/>value = [300, 0]<br/>class = loss>, fillcolor="#e58139ff"] ;
2 -> 3 ;
4 [label=<deaths &le; 0.488<br/>gini = 0.092<br/>samples = 83<br/>value = [79, 4]<br/>class = loss>, fillcolor="#e58139f2"] ;
2 -> 4 ;
5 [label=<gini = 0.0<br/>samples = 1<br/>value = [0, 1]<br/>class = win>, fillcolor="#399de5ff"] ;
4 -> 5 ;
6 [label=<deaths &le; 0.637<br/>gini = 0.07<br/>samples = 82<br/>value = [79, 3]<br/>class = loss>, fillcolor="#e58139f5"] ;
4 -> 6 ;
7 [label=<accuracy(%) &le; 0.545<br/>gini = 0.175<br/>samples = 31<br/>value = [28, 3]<br/>class = loss>, fillcolor="#e58139e4"] ;
6 -> 7 ;
8 [label=<k/d &le; 0.078<br/>gini = 0.128<br/>samples = 29<br/>value = [27, 2]<br/>class = loss>, fillcolor="#e58139ec"] ;
7 -> 8 ;
9 [label=<fave trait &le; 0.375<br/>gini = 0.32<br/>samples = 10<br/>value = [8, 2]<br/>class = loss>, fillcolor="#e58139bf"] ;
8 -> 9 ;
10 [label=<gini = 0.0<br/>samples = 7<br/>value = [7, 0]<br/>class = loss>, fillcolor="#e58139ff"] ;
9 -> 10 ;
11 [label=<avg kill dist &le; 0.427<br/>gini = 0.444<br/>samples = 3<br/>value = [1, 2]<br/>class = win>, fillcolor="#399de57f"] ;
9 -> 11 ;
12 [label=<gini = 0.0<br/>samples = 2<br/>value = [0, 2]<br/>class = win>, fillcolor="#399de5ff"] ;
11 -> 12 ;
13 [label=<gini = 0.0<br/>samples = 1<br/>value = [1, 0]<br/>class = loss>, fillcolor="#e58139ff"] ;
11 -> 13 ;
14 [label=<gini = 0.0<br/>samples = 19<br/>value = [19, 0]<br/>class = loss>, fillcolor="#e58139ff"] ;
8 -> 14 ;
15 [label=<accuracy(%) &le; 0.566<br/>gini = 0.5<br/>samples = 2<br/>value = [1, 1]<br/>class = loss>, fillcolor="#e5813900"] ;
7 -> 15 ;
16 [label=<gini = 0.0<br/>samples = 1<br/>value = [0, 1]<br/>class = win>, fillcolor="#399de5ff"] ;
15 -> 16 ;
17 [label=<gini = 0.0<br/>samples = 1<br/>value = [1, 0]<br/>class = loss>, fillcolor="#e58139ff"] ;
15 -> 17 ;
18 [label=<gini = 0.0<br/>samples = 51<br/>value = [51, 0]<br/>class = loss>, fillcolor="#e58139ff"] ;
6 -> 18 ;
19 [label=<score &le; 0.014<br/>gini = 0.324<br/>samples = 64<br/>value = [51, 13]<br/>class = loss>, fillcolor="#e58139be"] ;
1 -> 19 ;
20 [label=<assists &le; 0.184<br/>gini = 0.064<br/>samples = 30<br/>value = [29, 1]<br/>class = loss>, fillcolor="#e58139f6"] ;
19 -> 20 ;
21 [label=<avg kill dist &le; 0.372<br/>gini = 0.375<br/>samples = 4<br/>value = [3, 1]<br/>class = loss>, fillcolor="#e58139aa"] ;
20 -> 21 ;
22 [label=<gini = 0.0<br/>samples = 1<br/>value = [0, 1]<br/>class = win>, fillcolor="#399de5ff"] ;
21 -> 22 ;
23 [label=<gini = 0.0<br/>samples = 3<br/>value = [3, 0]<br/>class = loss>, fillcolor="#e58139ff"] ;
21 -> 23 ;
24 [label=<gini = 0.0<br/>samples = 26<br/>value = [26, 0]<br/>class = loss>, fillcolor="#e58139ff"] ;
20 -> 24 ;
25 [label=<duration(s) &le; 0.78<br/>gini = 0.457<br/>samples = 34<br/>value = [22, 12]<br/>class = loss>, fillcolor="#e5813974"] ;
19 -> 25 ;
26 [label=<assists &le; 0.342<br/>gini = 0.391<br/>samples = 30<br/>value = [22, 8]<br/>class = loss>, fillcolor="#e58139a2"] ;
25 -> 26 ;
27 [label=<gini = 0.0<br/>samples = 10<br/>value = [10, 0]<br/>class = loss>, fillcolor="#e58139ff"] ;
26 -> 27 ;
28 [label=<deaths &le; 0.613<br/>gini = 0.48<br/>samples = 20<br/>value = [12, 8]<br/>class = loss>, fillcolor="#e5813955"] ;
26 -> 28 ;
29 [label=<map &le; 0.667<br/>gini = 0.444<br/>samples = 9<br/>value = [3, 6]<br/>class = win>, fillcolor="#399de57f"] ;
28 -> 29 ;
30 [label=<gini = 0.0<br/>samples = 6<br/>value = [0, 6]<br/>class = win>, fillcolor="#399de5ff"] ;
29 -> 30 ;
31 [label=<gini = 0.0<br/>samples = 3<br/>value = [3, 0]<br/>class = loss>, fillcolor="#e58139ff"] ;
29 -> 31 ;
32 [label=<kills &le; 0.6<br/>gini = 0.298<br/>samples = 11<br/>value = [9, 2]<br/>class = loss>, fillcolor="#e58139c6"] ;
28 -> 32 ;
33 [label=<avg kill dist &le; 0.338<br/>gini = 0.5<br/>samples = 4<br/>value = [2, 2]<br/>class = loss>, fillcolor="#e5813900"] ;
32 -> 33 ;
34 [label=<gini = 0.0<br/>samples = 2<br/>value = [0, 2]<br/>class = win>, fillcolor="#399de5ff"] ;
33 -> 34 ;
35 [label=<gini = 0.0<br/>samples = 2<br/>value = [2, 0]<br/>class = loss>, fillcolor="#e58139ff"] ;
33 -> 35 ;
36 [label=<gini = 0.0<br/>samples = 7<br/>value = [7, 0]<br/>class = loss>, fillcolor="#e58139ff"] ;
32 -> 36 ;
37 [label=<gini = 0.0<br/>samples = 4<br/>value = [0, 4]<br/>class = win>, fillcolor="#399de5ff"] ;
25 -> 37 ;
38 [label=<k/d &le; 0.098<br/>gini = 0.444<br/>samples = 1221<br/>value = [407, 814]<br/>class = win>, fillcolor="#399de57f"] ;
0 -> 38 [labeldistance=2.5, labelangle=-45, headlabel="False"] ;
39 [label=<mode &le; 0.25<br/>gini = 0.487<br/>samples = 495<br/>value = [288, 207]<br/>class = loss>, fillcolor="#e5813948"] ;
38 -> 39 ;
40 [label=<score &le; 0.994<br/>gini = 0.363<br/>samples = 340<br/>value = [259, 81]<br/>class = loss>, fillcolor="#e58139af"] ;
39 -> 40 ;
41 [label=<deaths &le; 0.2<br/>gini = 0.044<br/>samples = 265<br/>value = [259, 6]<br/>class = loss>, fillcolor="#e58139f9"] ;
40 -> 41 ;
42 [label=<gini = 0.0<br/>samples = 2<br/>value = [0, 2]<br/>class = win>, fillcolor="#399de5ff"] ;
41 -> 42 ;
43 [label=<kills &le; 0.656<br/>gini = 0.03<br/>samples = 263<br/>value = [259, 4]<br/>class = loss>, fillcolor="#e58139fb"] ;
41 -> 43 ;
44 [label=<duration(s) &le; 0.741<br/>gini = 0.008<br/>samples = 258<br/>value = [257, 1]<br/>class = loss>, fillcolor="#e58139fe"] ;
43 -> 44 ;
45 [label=<gini = 0.0<br/>samples = 255<br/>value = [255, 0]<br/>class = loss>, fillcolor="#e58139ff"] ;
44 -> 45 ;
46 [label=<headshots &le; 0.143<br/>gini = 0.444<br/>samples = 3<br/>value = [2, 1]<br/>class = loss>, fillcolor="#e581397f"] ;
44 -> 46 ;
47 [label=<gini = 0.0<br/>samples = 1<br/>value = [0, 1]<br/>class = win>, fillcolor="#399de5ff"] ;
46 -> 47 ;
48 [label=<gini = 0.0<br/>samples = 2<br/>value = [2, 0]<br/>class = loss>, fillcolor="#e58139ff"] ;
46 -> 48 ;
49 [label=<duration(s) &le; 0.672<br/>gini = 0.48<br/>samples = 5<br/>value = [2, 3]<br/>class = win>, fillcolor="#399de555"] ;
43 -> 49 ;
50 [label=<gini = 0.0<br/>samples = 2<br/>value = [2, 0]<br/>class = loss>, fillcolor="#e58139ff"] ;
49 -> 50 ;
51 [label=<gini = 0.0<br/>samples = 3<br/>value = [0, 3]<br/>class = win>, fillcolor="#399de5ff"] ;
49 -> 51 ;
52 [label=<gini = 0.0<br/>samples = 75<br/>value = [0, 75]<br/>class = win>, fillcolor="#399de5ff"] ;
40 -> 52 ;
53 [label=<deaths &le; 0.613<br/>gini = 0.304<br/>samples = 155<br/>value = [29, 126]<br/>class = win>, fillcolor="#399de5c4"] ;
39 -> 53 ;
54 [label=<deaths &le; 0.562<br/>gini = 0.089<br/>samples = 107<br/>value = [5, 102]<br/>class = win>, fillcolor="#399de5f2"] ;
53 -> 54 ;
55 [label=<gini = 0.0<br/>samples = 82<br/>value = [0, 82]<br/>class = win>, fillcolor="#399de5ff"] ;
54 -> 55 ;
56 [label=<accuracy(%) &le; 0.585<br/>gini = 0.32<br/>samples = 25<br/>value = [5, 20]<br/>class = win>, fillcolor="#399de5bf"] ;
54 -> 56 ;
57 [label=<assists &le; 0.184<br/>gini = 0.236<br/>samples = 22<br/>value = [3, 19]<br/>class = win>, fillcolor="#399de5d7"] ;
56 -> 57 ;
58 [label=<gini = 0.0<br/>samples = 1<br/>value = [1, 0]<br/>class = loss>, fillcolor="#e58139ff"] ;
57 -> 58 ;
59 [label=<headshots &le; 0.214<br/>gini = 0.172<br/>samples = 21<br/>value = [2, 19]<br/>class = win>, fillcolor="#399de5e4"] ;
57 -> 59 ;
60 [label=<gini = 0.0<br/>samples = 17<br/>value = [0, 17]<br/>class = win>, fillcolor="#399de5ff"] ;
59 -> 60 ;
61 [label=<headshots &le; 0.357<br/>gini = 0.5<br/>samples = 4<br/>value = [2, 2]<br/>class = loss>, fillcolor="#e5813900"] ;
59 -> 61 ;
62 [label=<gini = 0.0<br/>samples = 2<br/>value = [2, 0]<br/>class = loss>, fillcolor="#e58139ff"] ;
61 -> 62 ;
63 [label=<gini = 0.0<br/>samples = 2<br/>value = [0, 2]<br/>class = win>, fillcolor="#399de5ff"] ;
61 -> 63 ;
64 [label=<accuracy(%) &le; 0.615<br/>gini = 0.444<br/>samples = 3<br/>value = [2, 1]<br/>class = loss>, fillcolor="#e581397f"] ;
56 -> 64 ;
65 [label=<gini = 0.0<br/>samples = 2<br/>value = [2, 0]<br/>class = loss>, fillcolor="#e58139ff"] ;
64 -> 65 ;
66 [label=<gini = 0.0<br/>samples = 1<br/>value = [0, 1]<br/>class = win>, fillcolor="#399de5ff"] ;
64 -> 66 ;
67 [label=<assists &le; 0.447<br/>gini = 0.5<br/>samples = 48<br/>value = [24, 24]<br/>class = loss>, fillcolor="#e5813900"] ;
53 -> 67 ;
68 [label=<score &le; 0.046<br/>gini = 0.375<br/>samples = 24<br/>value = [18, 6]<br/>class = loss>, fillcolor="#e58139aa"] ;
67 -> 68 ;
69 [label=<headshots &le; 0.357<br/>gini = 0.298<br/>samples = 22<br/>value = [18, 4]<br/>class = loss>, fillcolor="#e58139c6"] ;
68 -> 69 ;
70 [label=<accuracy(%) &le; 0.573<br/>gini = 0.245<br/>samples = 21<br/>value = [18, 3]<br/>class = loss>, fillcolor="#e58139d4"] ;
69 -> 70 ;
71 [label=<accuracy(%) &le; 0.448<br/>gini = 0.18<br/>samples = 20<br/>value = [18, 2]<br/>class = loss>, fillcolor="#e58139e3"] ;
70 -> 71 ;
72 [label=<fave rig &le; 0.5<br/>gini = 0.408<br/>samples = 7<br/>value = [5, 2]<br/>class = loss>, fillcolor="#e5813999"] ;
71 -> 72 ;
73 [label=<fave weapon &le; 0.5<br/>gini = 0.444<br/>samples = 3<br/>value = [1, 2]<br/>class = win>, fillcolor="#399de57f"] ;
72 -> 73 ;
74 [label=<gini = 0.0<br/>samples = 1<br/>value = [1, 0]<br/>class = loss>, fillcolor="#e58139ff"] ;
73 -> 74 ;
75 [label=<gini = 0.0<br/>samples = 2<br/>value = [0, 2]<br/>class = win>, fillcolor="#399de5ff"] ;
73 -> 75 ;
76 [label=<gini = 0.0<br/>samples = 4<br/>value = [4, 0]<br/>class = loss>, fillcolor="#e58139ff"] ;
72 -> 76 ;
77 [label=<gini = 0.0<br/>samples = 13<br/>value = [13, 0]<br/>class = loss>, fillcolor="#e58139ff"] ;
71 -> 77 ;
78 [label=<gini = 0.0<br/>samples = 1<br/>value = [0, 1]<br/>class = win>, fillcolor="#399de5ff"] ;
70 -> 78 ;
79 [label=<gini = 0.0<br/>samples = 1<br/>value = [0, 1]<br/>class = win>, fillcolor="#399de5ff"] ;
69 -> 79 ;
80 [label=<gini = 0.0<br/>samples = 2<br/>value = [0, 2]<br/>class = win>, fillcolor="#399de5ff"] ;
68 -> 80 ;
81 [label=<k/d &le; 0.074<br/>gini = 0.375<br/>samples = 24<br/>value = [6, 18]<br/>class = win>, fillcolor="#399de5aa"] ;
67 -> 81 ;
82 [label=<fave trait &le; 0.625<br/>gini = 0.496<br/>samples = 11<br/>value = [5, 6]<br/>class = win>, fillcolor="#399de52a"] ;
81 -> 82 ;
83 [label=<score &le; 0.042<br/>gini = 0.408<br/>samples = 7<br/>value = [5, 2]<br/>class = loss>, fillcolor="#e5813999"] ;
82 -> 83 ;
84 [label=<k/d &le; 0.057<br/>gini = 0.278<br/>samples = 6<br/>value = [5, 1]<br/>class = loss>, fillcolor="#e58139cc"] ;
83 -> 84 ;
85 [label=<gini = 0.0<br/>samples = 1<br/>value = [0, 1]<br/>class = win>, fillcolor="#399de5ff"] ;
84 -> 85 ;
86 [label=<gini = 0.0<br/>samples = 5<br/>value = [5, 0]<br/>class = loss>, fillcolor="#e58139ff"] ;
84 -> 86 ;
87 [label=<gini = 0.0<br/>samples = 1<br/>value = [0, 1]<br/>class = win>, fillcolor="#399de5ff"] ;
83 -> 87 ;
88 [label=<gini = 0.0<br/>samples = 4<br/>value = [0, 4]<br/>class = win>, fillcolor="#399de5ff"] ;
82 -> 88 ;
89 [label=<assists &le; 0.605<br/>gini = 0.142<br/>samples = 13<br/>value = [1, 12]<br/>class = win>, fillcolor="#399de5ea"] ;
81 -> 89 ;
90 [label=<gini = 0.0<br/>samples = 10<br/>value = [0, 10]<br/>class = win>, fillcolor="#399de5ff"] ;
89 -> 90 ;
91 [label=<kills &le; 0.5<br/>gini = 0.444<br/>samples = 3<br/>value = [1, 2]<br/>class = win>, fillcolor="#399de57f"] ;
89 -> 91 ;
92 [label=<gini = 0.0<br/>samples = 2<br/>value = [0, 2]<br/>class = win>, fillcolor="#399de5ff"] ;
91 -> 92 ;
93 [label=<gini = 0.0<br/>samples = 1<br/>value = [1, 0]<br/>class = loss>, fillcolor="#e58139ff"] ;
91 -> 93 ;
94 [label=<score &le; 0.986<br/>gini = 0.274<br/>samples = 726<br/>value = [119, 607]<br/>class = win>, fillcolor="#399de5cd"] ;
38 -> 94 ;
95 [label=<mode &le; 0.25<br/>gini = 0.38<br/>samples = 467<br/>value = [119, 348]<br/>class = win>, fillcolor="#399de5a8"] ;
94 -> 95 ;
96 [label=<deaths &le; 0.237<br/>gini = 0.061<br/>samples = 95<br/>value = [92, 3]<br/>class = loss>, fillcolor="#e58139f7"] ;
95 -> 96 ;
97 [label=<gini = 0.0<br/>samples = 2<br/>value = [0, 2]<br/>class = win>, fillcolor="#399de5ff"] ;
96 -> 97 ;
98 [label=<kills &le; 0.822<br/>gini = 0.021<br/>samples = 93<br/>value = [92, 1]<br/>class = loss>, fillcolor="#e58139fc"] ;
96 -> 98 ;
99 [label=<gini = 0.0<br/>samples = 91<br/>value = [91, 0]<br/>class = loss>, fillcolor="#e58139ff"] ;
98 -> 99 ;
100 [label=<accuracy(%) &le; 0.615<br/>gini = 0.5<br/>samples = 2<br/>value = [1, 1]<br/>class = loss>, fillcolor="#e5813900"] ;
98 -> 100 ;
101 [label=<gini = 0.0<br/>samples = 1<br/>value = [1, 0]<br/>class = loss>, fillcolor="#e58139ff"] ;
100 -> 101 ;
102 [label=<gini = 0.0<br/>samples = 1<br/>value = [0, 1]<br/>class = win>, fillcolor="#399de5ff"] ;
100 -> 102 ;
103 [label=<deaths &le; 0.613<br/>gini = 0.135<br/>samples = 372<br/>value = [27, 345]<br/>class = win>, fillcolor="#399de5eb"] ;
95 -> 103 ;
104 [label=<deaths &le; 0.488<br/>gini = 0.079<br/>samples = 338<br/>value = [14, 324]<br/>class = win>, fillcolor="#399de5f4"] ;
103 -> 104 ;
105 [label=<gini = 0.0<br/>samples = 205<br/>value = [0, 205]<br/>class = win>, fillcolor="#399de5ff"] ;
104 -> 105 ;
106 [label=<duration(s) &le; 0.587<br/>gini = 0.188<br/>samples = 133<br/>value = [14, 119]<br/>class = win>, fillcolor="#399de5e1"] ;
104 -> 106 ;
107 [label=<assists &le; 0.132<br/>gini = 0.146<br/>samples = 126<br/>value = [10, 116]<br/>class = win>, fillcolor="#399de5e9"] ;
106 -> 107 ;
108 [label=<gini = 0.0<br/>samples = 1<br/>value = [1, 0]<br/>class = loss>, fillcolor="#e58139ff"] ;
107 -> 108 ;
109 [label=<score &le; 0.034<br/>gini = 0.134<br/>samples = 125<br/>value = [9, 116]<br/>class = win>, fillcolor="#399de5eb"] ;
107 -> 109 ;
110 [label=<deaths &le; 0.562<br/>gini = 0.278<br/>samples = 36<br/>value = [6, 30]<br/>class = win>, fillcolor="#399de5cc"] ;
109 -> 110 ;
111 [label=<accuracy(%) &le; 0.452<br/>gini = 0.133<br/>samples = 28<br/>value = [2, 26]<br/>class = win>, fillcolor="#399de5eb"] ;
110 -> 111 ;
112 [label=<fave weapon &le; 0.5<br/>gini = 0.444<br/>samples = 6<br/>value = [2, 4]<br/>class = win>, fillcolor="#399de57f"] ;
111 -> 112 ;
113 [label=<score &le; 0.026<br/>gini = 0.444<br/>samples = 3<br/>value = [2, 1]<br/>class = loss>, fillcolor="#e581397f"] ;
112 -> 113 ;
114 [label=<gini = 0.0<br/>samples = 1<br/>value = [0, 1]<br/>class = win>, fillcolor="#399de5ff"] ;
113 -> 114 ;
115 [label=<gini = 0.0<br/>samples = 2<br/>value = [2, 0]<br/>class = loss>, fillcolor="#e58139ff"] ;
113 -> 115 ;
116 [label=<gini = 0.0<br/>samples = 3<br/>value = [0, 3]<br/>class = win>, fillcolor="#399de5ff"] ;
112 -> 116 ;
117 [label=<gini = 0.0<br/>samples = 22<br/>value = [0, 22]<br/>class = win>, fillcolor="#399de5ff"] ;
111 -> 117 ;
118 [label=<score &le; 0.026<br/>gini = 0.5<br/>samples = 8<br/>value = [4, 4]<br/>class = loss>, fillcolor="#e5813900"] ;
110 -> 118 ;
119 [label=<gini = 0.0<br/>samples = 3<br/>value = [0, 3]<br/>class = win>, fillcolor="#399de5ff"] ;
118 -> 119 ;
120 [label=<accuracy(%) &le; 0.477<br/>gini = 0.32<br/>samples = 5<br/>value = [4, 1]<br/>class = loss>, fillcolor="#e58139bf"] ;
118 -> 120 ;
121 [label=<gini = 0.0<br/>samples = 1<br/>value = [0, 1]<br/>class = win>, fillcolor="#399de5ff"] ;
120 -> 121 ;
122 [label=<gini = 0.0<br/>samples = 4<br/>value = [4, 0]<br/>class = loss>, fillcolor="#e58139ff"] ;
120 -> 122 ;
123 [label=<accuracy(%) &le; 0.576<br/>gini = 0.065<br/>samples = 89<br/>value = [3, 86]<br/>class = win>, fillcolor="#399de5f6"] ;
109 -> 123 ;
124 [label=<gini = 0.0<br/>samples = 62<br/>value = [0, 62]<br/>class = win>, fillcolor="#399de5ff"] ;
123 -> 124 ;
125 [label=<accuracy(%) &le; 0.586<br/>gini = 0.198<br/>samples = 27<br/>value = [3, 24]<br/>class = win>, fillcolor="#399de5df"] ;
123 -> 125 ;
126 [label=<duration(s) &le; 0.52<br/>gini = 0.444<br/>samples = 3<br/>value = [2, 1]<br/>class = loss>, fillcolor="#e581397f"] ;
125 -> 126 ;
127 [label=<gini = 0.0<br/>samples = 2<br/>value = [2, 0]<br/>class = loss>, fillcolor="#e58139ff"] ;
126 -> 127 ;
128 [label=<gini = 0.0<br/>samples = 1<br/>value = [0, 1]<br/>class = win>, fillcolor="#399de5ff"] ;
126 -> 128 ;
129 [label=<duration(s) &le; 0.512<br/>gini = 0.08<br/>samples = 24<br/>value = [1, 23]<br/>class = win>, fillcolor="#399de5f4"] ;
125 -> 129 ;
130 [label=<fave trait &le; 0.875<br/>gini = 0.444<br/>samples = 3<br/>value = [1, 2]<br/>class = win>, fillcolor="#399de57f"] ;
129 -> 130 ;
131 [label=<gini = 0.0<br/>samples = 2<br/>value = [0, 2]<br/>class = win>, fillcolor="#399de5ff"] ;
130 -> 131 ;
132 [label=<gini = 0.0<br/>samples = 1<br/>value = [1, 0]<br/>class = loss>, fillcolor="#e58139ff"] ;
130 -> 132 ;
133 [label=<gini = 0.0<br/>samples = 21<br/>value = [0, 21]<br/>class = win>, fillcolor="#399de5ff"] ;
129 -> 133 ;
134 [label=<fave weapon &le; 0.5<br/>gini = 0.49<br/>samples = 7<br/>value = [4, 3]<br/>class = loss>, fillcolor="#e5813940"] ;
106 -> 134 ;
135 [label=<assists &le; 0.395<br/>gini = 0.48<br/>samples = 5<br/>value = [2, 3]<br/>class = win>, fillcolor="#399de555"] ;
134 -> 135 ;
136 [label=<gini = 0.0<br/>samples = 2<br/>value = [0, 2]<br/>class = win>, fillcolor="#399de5ff"] ;
135 -> 136 ;
137 [label=<avg kill dist &le; 0.444<br/>gini = 0.444<br/>samples = 3<br/>value = [2, 1]<br/>class = loss>, fillcolor="#e581397f"] ;
135 -> 137 ;
138 [label=<gini = 0.0<br/>samples = 1<br/>value = [0, 1]<br/>class = win>, fillcolor="#399de5ff"] ;
137 -> 138 ;
139 [label=<gini = 0.0<br/>samples = 2<br/>value = [2, 0]<br/>class = loss>, fillcolor="#e58139ff"] ;
137 -> 139 ;
140 [label=<gini = 0.0<br/>samples = 2<br/>value = [2, 0]<br/>class = loss>, fillcolor="#e58139ff"] ;
134 -> 140 ;
141 [label=<score &le; 0.03<br/>gini = 0.472<br/>samples = 34<br/>value = [13, 21]<br/>class = win>, fillcolor="#399de561"] ;
103 -> 141 ;
142 [label=<assists &le; 0.711<br/>gini = 0.32<br/>samples = 10<br/>value = [8, 2]<br/>class = loss>, fillcolor="#e58139bf"] ;
141 -> 142 ;
143 [label=<accuracy(%) &le; 0.427<br/>gini = 0.198<br/>samples = 9<br/>value = [8, 1]<br/>class = loss>, fillcolor="#e58139df"] ;
142 -> 143 ;
144 [label=<gini = 0.0<br/>samples = 1<br/>value = [0, 1]<br/>class = win>, fillcolor="#399de5ff"] ;
143 -> 144 ;
145 [label=<gini = 0.0<br/>samples = 8<br/>value = [8, 0]<br/>class = loss>, fillcolor="#e58139ff"] ;
143 -> 145 ;
146 [label=<gini = 0.0<br/>samples = 1<br/>value = [0, 1]<br/>class = win>, fillcolor="#399de5ff"] ;
142 -> 146 ;
147 [label=<headshots &le; 0.214<br/>gini = 0.33<br/>samples = 24<br/>value = [5, 19]<br/>class = win>, fillcolor="#399de5bc"] ;
141 -> 147 ;
148 [label=<gini = 0.0<br/>samples = 11<br/>value = [0, 11]<br/>class = win>, fillcolor="#399de5ff"] ;
147 -> 148 ;
149 [label=<accuracy(%) &le; 0.579<br/>gini = 0.473<br/>samples = 13<br/>value = [5, 8]<br/>class = win>, fillcolor="#399de560"] ;
147 -> 149 ;
150 [label=<accuracy(%) &le; 0.492<br/>gini = 0.397<br/>samples = 11<br/>value = [3, 8]<br/>class = win>, fillcolor="#399de59f"] ;
149 -> 150 ;
151 [label=<map &le; 0.667<br/>gini = 0.5<br/>samples = 6<br/>value = [3, 3]<br/>class = loss>, fillcolor="#e5813900"] ;
150 -> 151 ;
152 [label=<assists &le; 0.342<br/>gini = 0.375<br/>samples = 4<br/>value = [1, 3]<br/>class = win>, fillcolor="#399de5aa"] ;
151 -> 152 ;
153 [label=<gini = 0.0<br/>samples = 1<br/>value = [1, 0]<br/>class = loss>, fillcolor="#e58139ff"] ;
152 -> 153 ;
154 [label=<gini = 0.0<br/>samples = 3<br/>value = [0, 3]<br/>class = win>, fillcolor="#399de5ff"] ;
152 -> 154 ;
155 [label=<gini = 0.0<br/>samples = 2<br/>value = [2, 0]<br/>class = loss>, fillcolor="#e58139ff"] ;
151 -> 155 ;
156 [label=<gini = 0.0<br/>samples = 5<br/>value = [0, 5]<br/>class = win>, fillcolor="#399de5ff"] ;
150 -> 156 ;
157 [label=<gini = 0.0<br/>samples = 2<br/>value = [2, 0]<br/>class = loss>, fillcolor="#e58139ff"] ;
149 -> 157 ;
158 [label=<gini = 0.0<br/>samples = 259<br/>value = [0, 259]<br/>class = win>, fillcolor="#399de5ff"] ;
94 -> 158 ;
}
